digraph Tree {
node [shape=box] ;
0 [label="X[3] <= 1.65\ngini = 0.642\nsamples = 9\nvalue = [3, 2, 4]"] ;
1 [label="X[3] <= 0.85\ngini = 0.48\nsamples = 5\nvalue = [3, 2, 0]"] ;
0 -> 1 [labeldistance=2.5, labelangle=45, headlabel="True"] ;
2 [label="gini = 0.0\nsamples = 3\nvalue = [3, 0, 0]"] ;
1 -> 2 ;
3 [label="gini = 0.0\nsamples = 2\nvalue = [0, 2, 0]"] ;
1 -> 3 ;
4 [label="gini = 0.0\nsamples = 4\nvalue = [0, 0, 4]"] ;
0 -> 4 [labeldistance=2.5, labelangle=-45, headlabel="False"] ;
}